34 128
34 0.08787547 0.008625892 0.07536413 -0.031372443 0.012314556 -0.073792376 0.10211234 0.094656855 -0.001840109 0.04672102 0.16427521 -0.107593134 -0.03908327 0.016212387 0.09372791 -0.043399017 -0.010440323 0.09724138 -0.16432889 0.011017563 0.14623147 0.11486564 -0.0018716585 0.106532626 -0.21166098 0.04199996 -0.07079725 0.15465643 0.056991216 0.097714 -0.29672045 0.049616635 0.07007472 -0.07357421 -0.10176844 -0.04063928 0.11938976 0.033672877 0.1073626 -0.04409207 -0.059079073 0.11339305 -0.07146863 -0.09704233 -0.068971775 -0.00018213989 0.0031824964 -0.09393314 0.022406623 0.040238574 0.09354876 -0.0055997185 0.15029179 0.048433162 0.107899204 0.04179455 0.16794147 0.008308308 -0.13651218 0.011574282 0.038427114 -0.08952785 -0.04017357 -0.0481648 0.09780346 -0.07117649 -0.006639304 0.03233628 -0.08196626 -0.07315307 0.10444463 0.08282606 -0.1070331 0.0109489355 0.013795889 -0.11501107 0.00978897 -0.040937938 -0.05122667 0.13096093 0.11708705 -0.12850407 -0.0028271815 0.0946935 0.045980778 0.079376675 0.15041448 -0.124068946 0.08368709 0.14367402 -0.07181987 0.024070557 -0.0011427995 0.04038508 0.13105561 0.020798786 -0.24216543 -0.2781989 -0.007371364 -0.1351364 -0.17297985 -0.05954848 0.0646516 0.0037824872 -0.014792436 -0.07834965 0.02620809 -0.034761116 0.0039235023 -0.0758168 0.093007594 -0.0048935744 0.035298962 0.19710848 0.03235473 0.015730228 -0.041515283 0.21154651 0.1036305 0.15552405 0.0010414233 -0.14641824 0.08574783 0.0857137 0.03001999 -0.17245735 -0.058315113 -0.0014742388
1 0.1073573 0.04823298 0.12551084 -0.049383007 0.13580295 -0.109616905 0.11502081 0.07644265 0.006515865 -0.015950749 0.19255142 -0.11190677 -0.00990817 -0.13296007 0.14633624 -0.08409774 -0.017686991 0.076358795 -0.0031537118 0.06744872 -0.00080499414 0.10703697 -0.008294934 0.07423001 -0.16790046 0.22556633 0.06543383 0.1416246 0.1552569 0.20979275 -0.2637564 0.1222166 -0.07755152 0.07174356 -0.13663079 -0.108654104 0.1005642 0.2013882 0.15864706 -0.085885935 0.022709541 0.09923566 0.021348905 0.02252527 0.016471796 -0.034308963 -0.04845095 -0.14998253 -0.05448292 -0.060626015 0.12025042 -0.18845408 0.13951565 0.16202173 0.057116047 -0.08668939 0.09907551 -0.048880003 -0.12295533 -0.1982834 0.08001432 -0.13107665 0.05787871 -0.14794648 0.04218695 -0.1885206 -0.105752215 0.0462645 -0.033255808 -0.102928504 0.060019378 -0.0057617347 -0.14581904 0.040757358 -0.14518948 -0.0030969982 -0.038534593 -0.025193356 -0.12947644 0.15267621 -0.07508046 -0.12015751 -0.031286094 0.0011304339 0.070073366 -0.072760366 0.16460583 -0.057900347 0.17600462 0.19057828 -0.093747556 -0.024720332 -0.12869434 0.023363438 0.043923084 -0.06206133 -0.060443245 -0.064997576 0.1067085 -0.1297218 -0.05215396 -0.14659673 -0.0011169119 -0.08048107 -0.076548226 -0.0473381 0.000308317 -0.05120821 -0.049772836 0.005574702 0.12984598 0.022530645 0.05617977 0.018904794 0.024118794 0.0019796893 -0.05475654 0.08999152 0.08890425 0.0046097343 -0.015699172 -0.04312095 0.017946558 0.095757306 -0.07775415 -0.24031723 -0.025418848 0.026318261
33 0.10724644 -0.0331419 0.038538616 -0.025963431 -0.001242984 -0.0702619 0.12987307 0.08725672 -0.0012152522 0.05973126 0.18859595 -0.096858874 -0.03660928 0.02620602 0.13860731 -0.022957915 -0.008737829 0.09489082 -0.16272923 0.011479602 0.16108494 0.124342285 -0.0274176 0.09683793 -0.2052057 -0.0028790568 -0.08360482 0.16835928 0.0705175 0.080222614 -0.28748924 0.014763213 0.12942423 -0.115666926 -0.14592817 -0.040890843 0.15052512 0.026037479 0.14156258 -0.050542403 -0.030411031 0.12650867 -0.069057636 -0.1184714 -0.067968525 0.0072514364 0.014879719 -0.13348529 0.05492952 0.057541404 0.12339322 0.008849212 0.16152002 0.02614483 0.12762852 0.06882923 0.18379737 -0.011971853 -0.13421707 0.037961997 0.046999976 -0.09286867 -0.06402474 -0.003454845 0.095805295 -0.089946836 0.026507199 0.04303099 -0.105305776 -0.060623582 0.15004525 0.12137547 -0.10934186 0.038072184 0.04500819 -0.13759059 0.010714236 -0.040599428 -0.011426933 0.17712578 0.16033588 -0.15283628 -0.028395824 0.113397524 0.0609869 0.11259876 0.1746617 -0.14600608 0.12092442 0.15229623 -0.094267815 0.027181635 -0.0064786687 0.040666472 0.14778084 0.04436727 -0.23939292 -0.29217097 -0.030293303 -0.11694568 -0.15573649 -0.027030312 0.09064768 -0.009019982 -0.015616186 -0.054264832 0.05986664 -0.04384296 0.013129711 -0.0692822 0.110721186 0.040759105 -0.0006993222 0.17833632 0.042857394 0.004416706 -0.030497683 0.16155078 0.07990865 0.15220025 -0.010215838 -0.10126475 0.06869765 0.074113116 0.044460017 -0.1274361 -0.0386684 -0.0211198
3 0.09674356 0.005375785 0.13090612 -0.054756723 0.06538229 -0.130801 0.052484877 0.06685429 -0.002927884 0.009387966 0.2150442 -0.12599964 -0.029721467 -0.085011914 0.119913675 -0.09608704 -0.0076721045 0.08091084 -0.054925364 0.0037058669 0.045539588 0.10557222 0.0016615791 0.093463585 -0.14565374 0.1415992 -0.019259831 0.10511204 0.08666686 0.106842756 -0.24933816 0.0888845 -0.038243484 0.033876263 -0.06170131 -0.053995773 0.11591356 0.09554475 0.12425268 -0.030005077 -0.0049185012 0.08159987 0.009935765 -0.002006843 -0.038509868 -0.030136667 -0.016810432 -0.12375063 -0.009373342 -0.036846843 0.12143587 -0.13165127 0.122237265 0.112752214 0.078402415 -0.03426941 0.086231984 -0.03457005 -0.13808784 -0.08340265 0.091885865 -0.11122088 0.04663765 -0.102009445 0.08532826 -0.14671311 -0.049373686 0.043238595 -0.018371698 -0.11683983 0.084598646 -0.00095184403 -0.16095434 -0.005055919 -0.08740543 -0.06150639 -0.029819196 -0.046688158 -0.100480095 0.1460774 -0.008696602 -0.13247338 0.0041241194 0.0508693 0.06583063 0.016249787 0.14309049 -0.06985121 0.109086215 0.1880869 -0.078128316 0.027913935 -0.072720975 0.054072432 0.12004168 -0.023852002 -0.17576306 -0.18966205 0.07866716 -0.1500746 -0.10606144 -0.13224237 0.035061933 -0.042100355 -0.058700863 -0.08372803 0.010778066 -0.054839414 -0.027923964 -0.052896418 0.12378349 -0.015661476 0.087007366 0.09471022 0.022906652 0.0041027428 -0.077781655 0.15362482 0.08994955 0.05558061 -0.02217102 -0.08261349 0.022352062 0.09099199 -0.035790194 -0.22816266 -0.039758503 0.03509501
2 0.08922185 0.019699017 0.12682967 -0.053808052 0.07166482 -0.16809627 0.12780784 0.118985094 -0.07286986 0.005941205 0.20729426 -0.115466274 -0.079941764 -0.093500726 0.18051656 -0.13475706 -0.016085621 0.12351116 -0.0038295786 0.06075225 0.025258608 0.077636205 -0.021142177 0.13078527 -0.14409348 0.1638798 0.050447583 0.20469107 0.1604998 0.15245053 -0.29864988 0.11618112 -0.028331421 0.00985213 -0.10125982 -0.08122184 0.12349328 0.17597024 0.14181405 -0.06287931 0.045366272 0.14911935 0.00092575967 0.045380108 0.027048629 0.0069493037 -0.05240533 -0.13392678 0.013328963 -0.03827484 0.11319128 -0.15150943 0.16149035 0.1260138 0.12565887 -0.03551877 0.051429264 -0.060863513 -0.09569031 -0.13997605 0.1139184 -0.11432092 0.06680193 -0.0898526 0.020627387 -0.13736126 -0.094458096 0.034710784 -0.015893027 -0.10564637 0.07939428 -0.024658613 -0.12279077 -0.013421301 -0.11011366 0.0053283004 -0.036109917 -0.0398932 -0.07951799 0.1443606 -0.034322962 -0.11975269 -0.0120624015 0.0012940217 0.088047996 -0.05637843 0.19504043 -0.07066594 0.18086983 0.16622782 -0.07613011 -0.007414094 -0.07248999 0.057850223 0.071575254 0.0005116713 -0.13705468 -0.12802182 0.11888202 -0.10306208 -0.10359168 -0.070551306 0.032741316 -0.062350422 -0.049753096 -0.0011717696 0.011816338 -0.080749065 -0.0680886 -0.04041482 0.13889372 0.0072316583 0.035750784 0.021227585 0.048356988 -0.023078175 0.015856653 0.1085007 0.08050247 0.04508064 -0.030700339 -0.029470071 -0.008478672 0.08058771 -0.07959778 -0.24819243 -0.0007250233 0.0020342676
32 0.11523014 -0.047729477 0.084801786 -0.11372655 0.05424903 -0.02296848 -0.010694335 -0.03100286 0.057652347 0.058403056 0.18544574 -0.12506233 -0.004887732 0.016626002 0.053136233 -0.017648607 -0.0061075366 0.012417105 -0.1320058 -0.052272204 0.11226213 0.12510408 0.0025869305 0.07526681 -0.18779778 0.08567448 -0.09394682 -0.026855785 0.03235315 0.06348677 -0.24300028 0.042831857 0.020469068 0.030536937 -0.07355239 -0.0076156063 0.13831308 0.060569923 0.11602044 -0.038029354 -0.04174934 0.006617856 -0.018649546 -0.09381413 -0.11311561 -0.07845914 0.017885573 -0.17111818 -0.02068077 0.008302288 0.12798509 -0.053810276 0.12244832 0.05435013 0.01961331 0.010088203 0.18910874 0.015555527 -0.17415507 -0.010017252 0.064020894 -0.10289449 -0.015726222 -0.08197813 0.142381 -0.12855421 0.009338033 0.03551776 -0.08928552 -0.12877378 0.13311231 0.08058274 -0.16015299 0.0423906 -0.0431145 -0.13723543 -0.054080628 -0.04842345 -0.09504729 0.17830426 0.08439756 -0.17305347 -0.013034584 0.124245286 0.022088343 0.081726454 0.10795766 -0.12857293 0.058565445 0.18409683 -0.10396051 0.054581713 -0.057518285 0.013052102 0.14911751 -0.02174117 -0.22057559 -0.23873447 -0.047824387 -0.18721282 -0.06156967 -0.124088295 0.0020228205 -0.015128816 -0.034488723 -0.13563874 0.021962462 -0.016120048 0.041172042 -0.031245327 0.06005877 0.007842936 0.11634412 0.13182773 -0.05227083 0.02871407 -0.1727935 0.2127505 0.105207585 0.12346997 0.026434079 -0.13277534 0.017969267 0.1215086 0.028590938 -0.10860085 -0.098017335 0.08809082
4 0.05918673 0.026060501 0.14790381 -0.06811392 0.09675202 -0.16172972 0.057342377 0.10563641 -0.037942275 0.0029406406 0.19036548 -0.123777404 -0.08018745 -0.11306297 0.093096055 -0.13529424 -0.003131387 0.11833648 0.007331496 0.08018114 0.005837328 0.06874611 0.0096647795 0.0967752 -0.1407958 0.18829963 0.028586281 0.1282454 0.130546 0.14009973 -0.26866716 0.14009485 -0.112166114 0.08518214 -0.035048194 -0.037648007 0.13572942 0.17861675 0.13671295 -0.036247484 0.027078794 0.11419519 0.04825034 0.038927596 0.015878273 -0.0133069465 -0.047793806 -0.13303307 -0.033837896 -0.06794137 0.098166324 -0.17244883 0.15745524 0.1591874 0.116393976 -0.07448762 0.0451643 -0.041261423 -0.09862033 -0.18736292 0.124654986 -0.1420359 0.10445104 -0.14008962 0.04293785 -0.12960221 -0.10351456 0.05293843 -0.020790627 -0.12095135 0.059256744 -0.0760482 -0.14352559 -0.018745983 -0.13988936 -0.02001191 -0.05489931 -0.060479492 -0.119062446 0.14093086 -0.066139825 -0.123611905 0.0065786126 0.011908724 0.0934712 -0.06805216 0.19529153 -0.03572011 0.1641116 0.19678314 -0.051921524 -0.010469467 -0.09646913 0.051020417 0.10009696 -0.014573927 -0.16264884 -0.1341836 0.122123025 -0.13491994 -0.10604684 -0.10454436 -0.0008551483 -0.057638414 -0.041966528 -0.026752654 -0.01977319 -0.076858126 -0.081322946 -0.06355779 0.10494074 -0.008873013 0.089974076 0.009107968 0.044730503 -0.022902919 -0.0012173725 0.14072235 0.08707717 0.016201437 -0.025958579 -0.039922085 -0.024798302 0.08501736 -0.07320238 -0.25171104 0.01446979 0.058218013
14 0.09323402 0.027430955 0.16378187 -0.05712531 0.055284392 -0.15459566 0.07549063 0.11107188 -0.028314037 -0.0042284643 0.1727569 -0.11469468 -0.04878974 -0.10452122 0.1252017 -0.13239959 -0.013358455 0.116016656 -0.0072219605 0.055612575 0.018940892 0.0583621 -0.0018623403 0.08488376 -0.13256899 0.14096817 0.022580113 0.13232942 0.12784413 0.12069401 -0.23900777 0.13910088 -0.055799186 0.034496088 -0.063331634 -0.05224759 0.15066315 0.1924195 0.13184294 -0.042050995 0.019458214 0.13295151 0.01183835 0.035377957 0.01785037 0.0024974146 -0.043283105 -0.14674771 -0.018931963 -0.034281045 0.0985054 -0.14538169 0.16294117 0.15983118 0.1097922 -0.039495055 0.04827287 -0.015271134 -0.12635097 -0.1616751 0.109837994 -0.13833024 0.084141985 -0.11996343 0.047412228 -0.13144735 -0.11558247 0.027971724 -0.027608624 -0.14519735 0.06651702 -0.048569914 -0.13970354 -0.0035115574 -0.09897185 -0.021719271 -0.04483801 -0.075649835 -0.08756104 0.12560932 -0.029512947 -0.1380593 0.017375791 0.018056622 0.0949539 -0.032344315 0.19682863 -0.06792241 0.17676972 0.19178323 -0.09543603 0.028830983 -0.054612312 0.082270876 0.08419644 0.021868302 -0.1467958 -0.13666528 0.13584629 -0.15175183 -0.1386896 -0.10367707 0.039773013 -0.072438814 -0.0773958 -0.03544546 -0.0073014577 -0.06310823 -0.076411076 -0.040802926 0.11485728 0.00047821942 0.06589982 0.041143864 0.043411233 -0.031354275 0.022780132 0.12072802 0.080049954 0.04617478 -0.010118064 -0.0728464 0.0008075595 0.06544192 -0.07922402 -0.25606206 0.017589878 0.028541336
24 0.111739255 -0.041201074 0.10500397 -0.11536664 0.0155914165 -0.02177199 -0.0111295795 -0.0433319 0.109614186 0.071651116 0.20493248 -0.09542251 0.003034034 0.025372338 0.014941115 0.010735471 -0.03337867 0.04012754 -0.14872935 -0.05677323 0.13574181 0.1334701 0.0077839564 0.044676557 -0.21162294 0.044034574 -0.13205963 -0.012129537 0.014146777 0.07377622 -0.23477279 0.0339234 0.052628297 -0.038716927 -0.06821045 -0.009579218 0.13399175 0.035262253 0.13480051 -0.041508812 -0.09391672 0.02492291 -0.0681992 -0.17073867 -0.10229219 -0.06757992 0.034847535 -0.18661019 -0.031763792 0.09771248 0.13328727 0.018668605 0.10982304 0.022415306 0.0025984966 0.052191395 0.21277106 0.05762828 -0.18936415 0.061747607 0.030697985 -0.08157989 -0.054600425 -0.059412662 0.15431866 -0.12514532 0.036581054 0.036632013 -0.08824322 -0.07936954 0.123709016 0.12186949 -0.13982128 0.0453925 0.0038636203 -0.20132089 -0.040271737 -0.0046876 -0.074721575 0.19818841 0.14926662 -0.18748532 0.008096249 0.17653939 0.046488035 0.12154672 0.116864614 -0.177348 0.040247157 0.18094341 -0.13727959 0.055549096 -0.058108397 0.012135071 0.16667408 -0.016405735 -0.2206549 -0.30607125 -0.081739135 -0.20976938 -0.12461248 -0.10236962 0.01174595 0.016449396 -0.04813101 -0.14927535 0.04878045 -0.017857837 0.027735716 -0.0588947 0.051946647 0.007426623 0.08105977 0.20309108 -0.07058248 0.004812953 -0.16508447 0.2089985 0.09640216 0.17929283 0.024113428 -0.14500175 0.047529534 0.11011885 0.070715785 -0.07677423 -0.11494257 0.049954895
6 0.21093969 0.11117525 0.048924297 0.005459895 0.21243313 -0.004245781 0.21010807 0.07609975 0.054278344 -0.11429506 0.065647684 -0.16348448 0.004968196 -0.08804673 0.25539717 0.036048163 -0.09324141 -0.041789316 -0.029065805 0.14237909 -0.0067204293 0.104023136 -0.08182403 0.07715673 -0.19029 0.26579142 0.16711952 0.14125685 0.13647616 0.3435055 -0.22375195 0.064054966 0.02102228 0.042611286 -0.2194283 -0.1772385 0.0074156537 0.2898645 0.09337522 -0.13504748 -0.060144726 0.076618865 0.039688554 0.09920445 0.019075457 -0.07231123 -0.068139955 -0.06730817 -0.10301891 -0.07672179 0.1157137 -0.22338608 0.17807007 0.14773637 -0.00800781 -0.10583041 0.27212456 -0.034826804 -0.13881671 -0.36720765 -0.07668026 -0.13501823 -0.01411404 -0.3197179 -0.011865891 -0.19285509 -0.1353146 -0.009245049 -0.10839249 0.016943386 0.067440175 0.082781225 -0.11956609 0.16055043 -0.18587334 0.12141432 -0.040755283 0.016680643 -0.16055295 0.0633316 -0.05725935 -0.16575913 -0.088674866 -0.0919138 -1.716015e-05 -0.18316157 0.1579997 -0.05916851 0.20387189 0.18981867 -0.097503886 -0.016294958 -0.167707 -0.01844814 -0.040080156 -0.090197146 -0.029783687 0.050771493 0.1010323 -0.21884169 -0.001500501 -0.24612862 -0.04925146 -0.12925215 -0.09515464 -0.04871946 0.05741396 -0.028097495 -0.14056614 0.0856871 0.20379077 0.06567184 -0.025971925 -0.009444622 0.07637668 -0.003127311 -0.11908944 0.07152905 0.11574346 0.044940222 0.058371328 -0.09502604 0.08241171 0.12783976 -0.052258745 -0.28428558 -0.028518965 0.069055185
8 0.07793113 0.019499091 0.13890013 -0.059705283 0.06596802 -0.1430721 0.08165309 0.0824352 -0.03047745 0.0151836565 0.19080083 -0.11050989 -0.044886023 -0.10463239 0.12511437 -0.11593922 0.0070669116 0.11326192 -0.0041681244 0.044689838 0.017019479 0.09362289 -0.006322374 0.0942873 -0.14198752 0.1448717 0.0135778375 0.11848789 0.12850814 0.12638727 -0.26495677 0.13049383 -0.06331719 0.04350185 -0.06954252 -0.042659488 0.1501377 0.1732598 0.14004318 -0.05562616 0.03419526 0.102420114 0.026108816 0.02330988 0.013180356 -0.0030832652 -0.053581055 -0.14813446 -0.015491167 -0.026922511 0.10003279 -0.13981456 0.15184891 0.13450158 0.100018635 -0.049428813 0.042148188 -0.023301985 -0.11254795 -0.13988823 0.10659293 -0.12113556 0.07368614 -0.10594683 0.047498785 -0.14325432 -0.09806247 0.032759212 -0.023209782 -0.12809388 0.07533574 -0.026009709 -0.13938181 0.002618813 -0.11291007 -0.026667375 -0.048260745 -0.052669343 -0.09562242 0.15258624 -0.027027916 -0.1225522 -0.0020434659 0.03857152 0.09094147 -0.027726633 0.19029954 -0.07001191 0.16472903 0.18305103 -0.089090556 0.0042086877 -0.07844446 0.057260636 0.0973995 0.009174474 -0.14423272 -0.1338496 0.10407437 -0.13464268 -0.10110337 -0.098746456 0.03009067 -0.054426312 -0.06176407 -0.04029239 0.007021989 -0.05003442 -0.056649633 -0.042695142 0.110221535 0.009608575 0.07125452 0.042130932 0.012360932 -0.026184993 -0.006740239 0.1315132 0.07174296 0.051791593 -0.011234722 -0.053811982 -0.012161805 0.07034425 -0.0570964 -0.22843488 -0.000394199 0.044265673
28 0.13946351 -0.08448709 0.11181895 -0.12956974 -0.0024699515 -0.07180331 -0.01500051 -0.03058331 0.09512156 0.058226537 0.22217713 -0.10970971 0.008258739 0.0033646354 0.06470476 -0.011262627 -0.016476506 0.03689277 -0.09161906 -0.09484909 0.11879102 0.13004681 -0.0046915896 0.054159284 -0.15077886 0.034466326 -0.10361084 -0.038631763 0.07107125 0.042664144 -0.22835499 0.0448401 0.052811135 -0.020644253 -0.06916973 0.022934448 0.17518215 0.06176372 0.1459321 -0.057479046 -0.021832364 0.0070153433 -0.023541767 -0.11711346 -0.07623451 -0.06927075 0.0039039422 -0.22161607 0.0054270574 0.07176622 0.13353553 -0.024662174 0.095711134 0.0397643 0.025675904 0.029519236 0.15678322 0.038413092 -0.18973003 0.029794954 0.06964738 -0.07984674 -0.025428843 -0.047953047 0.14265364 -0.14796373 0.014683366 0.028054547 -0.057292275 -0.10965033 0.15358171 0.10743013 -0.174346 0.049911093 -0.025387062 -0.17597826 -0.07743778 -0.016985763 -0.054771237 0.21953791 0.11070709 -0.19400294 0.015271883 0.16427572 0.08080075 0.12585737 0.12022336 -0.18107307 0.06455716 0.19427504 -0.15524873 0.0756377 -0.06153134 0.03634379 0.17269033 0.016222557 -0.19886719 -0.26693812 -0.05566985 -0.1789174 -0.074240796 -0.064402364 0.002911923 -0.018179484 -0.057317577 -0.134977 0.045522574 -0.016472321 0.019232346 -0.037725694 0.06479702 0.027448757 0.07945061 0.16618605 -0.07838148 -0.0019562703 -0.15416533 0.1867268 0.084164664 0.15700005 0.022397108 -0.12075405 -0.01448942 0.09352265 0.0597362 -0.0855377 -0.09472006 0.07432469
9 0.13234672 0.003603568 0.07320468 -0.027652865 0.059752688 -0.08056297 0.10483235 0.07350985 0.04460081 0.0154733155 0.16424476 -0.11616246 -0.001115619 -0.06298712 0.13173991 -0.019569773 -0.009596165 0.06660831 -0.08979989 0.02131725 0.08070439 0.12247951 -0.0077367653 0.07458515 -0.1705681 0.08467453 -0.004628874 0.108919166 0.10119363 0.13040942 -0.25803322 0.0644868 0.045452848 -0.031717293 -0.14583366 -0.042240832 0.14088604 0.11661641 0.14748426 -0.07793531 -0.019473707 0.072495274 -0.019478114 -0.06302764 -0.035473417 -0.022534333 -0.022806112 -0.14352852 -0.017180191 0.03142478 0.1053301 -0.07505847 0.15020074 0.09909812 0.05953372 -0.016742399 0.15850973 -0.007941811 -0.14712241 -0.07962524 0.027577635 -0.08651541 -0.005989619 -0.1054199 0.06203597 -0.13167006 -0.038972076 0.028983468 -0.079059616 -0.05878186 0.11253613 0.08184761 -0.121595345 0.06782306 -0.053333122 -0.075268954 -0.038845807 -0.023865197 -0.07290824 0.15855628 0.057974506 -0.1448176 -0.018438198 0.06441735 0.06934044 0.039417233 0.16222078 -0.112912476 0.13069433 0.17209834 -0.10798407 0.0139812445 -0.05087604 0.03466793 0.09567637 0.0103247855 -0.1395543 -0.17147209 0.030072877 -0.14855416 -0.092937544 -0.08930526 0.024426918 -0.03840321 -0.04322181 -0.087460615 0.042317208 -0.016932504 -0.030685274 -0.019791346 0.10003474 0.0407045 0.026996396 0.13051759 0.01606626 -0.01843831 -0.051856406 0.13802695 0.08401283 0.112491824 0.010302024 -0.10940098 0.04181526 0.07347521 0.027210673 -0.17858058 -0.025925165 0.032750558
7 0.21325496 0.10011217 0.02562672 0.0013111557 0.23384781 0.03099059 0.22059557 0.07082834 0.08516154 -0.10958131 0.06058149 -0.18496673 0.050560456 -0.086411566 0.2463727 0.050094143 -0.07046652 -0.07095765 -0.05760252 0.11653678 -0.00078962825 0.12322838 -0.090638295 0.061483953 -0.19341902 0.2547981 0.1621502 0.09003851 0.15599209 0.34556383 -0.2296429 0.06976366 0.0038649733 0.045064043 -0.23287469 -0.1546424 -0.0012811795 0.27255818 0.07967956 -0.16286367 -0.038142648 0.04100812 0.05028706 0.09346057 0.0051389104 -0.09308752 -0.08761946 -0.0790435 -0.08454409 -0.08515794 0.121278815 -0.20286103 0.17904268 0.12640351 -0.02514078 -0.12206682 0.30652714 -0.010503258 -0.13615434 -0.37646458 -0.09558766 -0.1387244 -0.03339765 -0.3239021 0.011379755 -0.2188871 -0.12720256 -0.0030098292 -0.11875141 0.01975956 0.088826224 0.11808506 -0.15399745 0.20026955 -0.18599069 0.097585656 -0.036217216 0.011683493 -0.15424737 0.096324906 -0.04762031 -0.18791148 -0.10033373 -0.057485517 0.007628288 -0.16869466 0.16393158 -0.05341278 0.21171802 0.19446807 -0.08532488 -0.019850709 -0.18648289 -0.028407214 -0.03669242 -0.10435632 -0.033859946 0.055175554 0.048617784 -0.22202308 0.041339196 -0.2531156 -0.07595032 -0.11549835 -0.059603553 -0.07203647 0.055794746 -0.03903132 -0.11034129 0.114708886 0.22704202 0.08042028 -0.01497422 0.0032774082 0.05248974 0.018302893 -0.15837938 0.09320541 0.13175237 0.052652717 0.07524949 -0.10034905 0.110987194 0.13572913 -0.033825185 -0.26755467 -0.041073866 0.09720432
30 0.15164343 -0.05135562 0.09635353 -0.020865966 -0.05000175 -0.06617849 0.10640005 0.04588236 0.055912793 0.05094707 0.19295223 -0.09937493 0.010270514 0.028003892 0.12724163 -0.0037664343 -0.02749214 0.07737148 -0.1801648 -0.03938128 0.17929654 0.14033726 0.0052544316 0.067525774 -0.18697461 -0.03368518 -0.10113876 0.13822839 0.041898508 0.014978992 -0.23676006 0.0048148935 0.1747407 -0.14874417 -0.16233906 -0.032609224 0.18964726 0.010261229 0.14823572 -0.052244734 -0.071439914 0.11518907 -0.10611431 -0.16941068 -0.06815712 0.010746632 0.05089965 -0.17003693 0.053059485 0.11765219 0.12860107 0.0774985 0.12692909 0.030686228 0.073580205 0.10949929 0.20064321 0.02141864 -0.18363124 0.10563458 0.03098065 -0.08286525 -0.0641334 0.036277942 0.12195921 -0.07734039 0.049748853 0.018696085 -0.09556979 -0.062534414 0.17195737 0.16376412 -0.11771565 0.0668813 0.10782135 -0.16398768 0.015916964 -0.037593108 0.016647292 0.17175095 0.21162751 -0.16167276 0.0099770455 0.13890739 0.04720157 0.19121292 0.1516236 -0.20747937 0.08160034 0.1644675 -0.15625282 0.07480975 0.04637794 0.056503534 0.16525505 0.08128417 -0.24043073 -0.34581682 -0.0368954 -0.13702695 -0.19712506 -0.011272865 0.1231427 0.011625371 -0.04004634 -0.094002575 0.07131601 -0.018534591 0.034017716 -0.050244477 0.089426376 0.040171903 -0.01600101 0.25213704 0.025303092 -0.00937491 -0.023575574 0.14422129 0.07321671 0.19495252 0.016100895 -0.14837208 0.08940976 0.05218797 0.09232353 -0.11195582 -0.08181328 -0.035544597
25 0.1028342 -0.09944598 0.10032794 -0.2246199 0.019483149 -0.0041226717 -0.14414416 -0.15022174 0.13925424 0.12935957 0.22823875 -0.118113115 0.014160273 0.04453293 -0.037286848 0.026280748 -0.0053835046 -0.01836099 -0.117451824 -0.14893556 0.11475602 0.16227621 0.017825535 0.06583898 -0.17631763 0.06708996 -0.16925377 -0.21966068 0.021410594 0.0017329757 -0.24469367 0.03421867 -0.029843068 0.06426705 0.0001695587 0.10041838 0.18516481 0.03375201 0.1479146 -0.044320215 -0.047829404 -0.101590924 0.0027523383 -0.16134486 -0.15320204 -0.119792365 0.0062849433 -0.2642472 -0.05161343 0.039298486 0.1520818 -0.016034164 0.09724643 0.012899524 -0.05174537 0.018380534 0.18980005 0.09005435 -0.20891716 0.043668043 0.06997858 -0.080421835 -0.018667497 -0.06330936 0.22369207 -0.15799445 0.04532281 0.038521554 -0.08258376 -0.17476247 0.16537608 0.109091535 -0.21932225 0.062025376 -0.07819063 -0.23982394 -0.15199712 -0.0148489075 -0.10208645 0.2744055 0.119630136 -0.24206161 0.010011438 0.24298665 0.05081739 0.13389832 0.0891274 -0.19279419 0.015939383 0.21701694 -0.15007973 0.09182049 -0.08733572 0.003965822 0.22335435 -0.04352987 -0.260892 -0.30084932 -0.11801136 -0.26102915 -0.018914767 -0.1163935 -0.07660253 0.019180289 -0.04888967 -0.20882909 0.04019581 0.0012471098 0.059416056 -0.046219226 0.021279152 0.0008514591 0.17909354 0.16868325 -0.17166206 0.017294368 -0.28692433 0.2926151 0.12291837 0.18216111 0.052787155 -0.15953709 -0.0517652 0.1559744 0.07005819 -0.05429079 -0.15431775 0.15068537
31 0.11416773 0.016581347 0.12078826 -0.01614996 0.010364246 -0.10680353 0.14005741 0.1325545 -0.021711502 0.011024922 0.1566605 -0.1104318 -0.039406564 -0.011606198 0.15469703 -0.100091375 -0.047491882 0.12525515 -0.10855388 0.04493509 0.1133585 0.059737135 -0.019170903 0.09111924 -0.18678677 0.0489664 -0.018258922 0.2300769 0.08393921 0.11278711 -0.23740382 0.06505112 0.07616213 -0.08931599 -0.1254243 -0.10216861 0.10820428 0.10135207 0.1216889 -0.0392973 -0.043102365 0.19623879 -0.09330764 -0.043446217 -0.015216425 0.029897671 0.017883297 -0.11023482 0.036194257 0.028203404 0.10126641 -0.03983548 0.16228923 0.090769425 0.13220297 0.06118556 0.1184761 -0.0053334585 -0.1408503 -0.025263937 0.06820725 -0.11167255 -0.0038229031 -0.029360397 0.07250017 -0.08584412 -0.05710908 0.0152732525 -0.0478823 -0.09221671 0.08288153 0.044112954 -0.09817515 0.00023793598 0.027822284 -0.07590279 0.03456291 -0.05216443 -0.024677735 0.11381069 0.09174093 -0.12953874 0.01002105 0.037240803 0.06919827 0.039889548 0.18237104 -0.12483538 0.14241105 0.14067525 -0.091158144 0.033611525 -0.0014641954 0.07826175 0.09502695 0.035239168 -0.18880603 -0.23133934 0.05660854 -0.112653136 -0.20750903 -0.05681171 0.101323985 -0.03554041 -0.06932557 -0.012315669 0.006982362 -0.07268429 -0.024494637 -0.048674475 0.11685316 -0.0064776973 -0.0033708988 0.1355711 0.06400569 -0.00025438832 0.042081676 0.10344264 0.08191665 0.102854595 -0.02303263 -0.09006225 0.081725806 0.067590676 -0.03545148 -0.19702584 -0.013536271 -0.06140217
20 0.106369816 0.024111481 0.14267334 -0.03185067 0.047837034 -0.15781818 0.13298821 0.120075606 -0.04503803 0.0020719918 0.19665304 -0.12134141 -0.061355196 -0.08494398 0.16892661 -0.1249434 -0.017843843 0.12259017 -0.031309668 0.052630007 0.041901555 0.08461403 -0.019776447 0.1054203 -0.14795865 0.1235079 0.022478972 0.19863494 0.13275921 0.13052098 -0.26286596 0.11168206 -0.01083181 -0.019387204 -0.094779365 -0.07794238 0.12839565 0.14989965 0.13482437 -0.04107964 0.014116714 0.14615451 -0.0074005555 0.016921867 0.019670734 0.019126855 -0.03758103 -0.118497215 0.010985684 -0.006550809 0.09432701 -0.11402097 0.15318945 0.11657131 0.115231395 -0.015060285 0.054762382 -0.04170375 -0.10742539 -0.10721509 0.10368651 -0.115104236 0.043930084 -0.07376769 0.040385656 -0.133029 -0.0928701 0.02515698 -0.026808804 -0.10221826 0.0769327 -0.005809996 -0.12469466 -0.00472417 -0.06500741 -0.029296076 -0.02467152 -0.039734926 -0.06657121 0.13814402 -0.0034932285 -0.11968034 0.0006138668 0.013516999 0.08371145 -0.01715904 0.1850319 -0.07499979 0.16859238 0.16715764 -0.08685655 0.008841583 -0.055259924 0.07092584 0.07758136 0.019718051 -0.14567071 -0.16138442 0.097279266 -0.109998986 -0.13873538 -0.07584571 0.055497628 -0.05415096 -0.06744325 -0.016983103 0.016815431 -0.07149913 -0.06314199 -0.041457918 0.1303294 0.004573821 0.03884484 0.06566969 0.05253066 -0.024143972 0.0178366 0.115001455 0.07429514 0.056332022 -0.021447195 -0.054502122 0.013674906 0.07667782 -0.058926288 -0.24021724 0.0045210444 -0.0065031615
29 0.08717928 -0.041739907 0.1312442 -0.091580965 0.012527377 -0.11353803 0.027066477 0.030827697 0.009050707 0.077186815 0.24730024 -0.10459451 -0.02780502 -0.042411763 0.082968324 -0.08599088 0.013692487 0.10455514 -0.09285209 -0.032764807 0.0941866 0.12342068 0.016307661 0.08705509 -0.16802168 0.05794306 -0.08286371 0.07688698 0.05525376 0.035134498 -0.26025018 0.07222133 0.01994886 -0.007533302 -0.080834255 -0.0055413153 0.20410426 0.07605686 0.16595922 -0.03467444 -0.0060535627 0.07170832 -0.033064205 -0.104324915 -0.07018776 -0.015583844 0.017060682 -0.18985486 0.014377923 0.04105449 0.11420078 -0.033601634 0.13012518 0.08855227 0.07978137 0.024465097 0.08937551 -0.004086715 -0.1541366 0.039741807 0.116133764 -0.1010343 0.023305578 -0.026919393 0.11772552 -0.10045018 -0.011960475 0.04382659 -0.06314972 -0.14633016 0.124695726 0.029734952 -0.12941957 0.00081118353 -0.01212092 -0.14438784 -0.041719675 -0.06715796 -0.051042352 0.18968464 0.082859404 -0.14060123 0.004203921 0.12955074 0.06071058 0.11495973 0.15190774 -0.13220553 0.08781503 0.17066297 -0.11830842 0.05234156 -0.008108402 0.05724263 0.15966097 0.036278564 -0.209715 -0.25797543 0.008222387 -0.13472669 -0.14049694 -0.05988911 0.06548396 -0.0027905498 -0.049125127 -0.09436349 0.021115063 -0.028493928 0.019855099 -0.070159964 0.049244266 0.0064024692 0.09035452 0.13470356 -0.02186802 -0.013601221 -0.054255195 0.166185 0.060523003 0.10010973 -0.017163236 -0.09626684 0.0025525694 0.06722059 0.0065848627 -0.13470829 -0.039381497 0.033598877
11 0.19717103 0.103015 0.0753257 -0.026222356 0.22711131 -0.053163465 0.22064574 0.09297158 0.034395885 -0.10596171 0.122251235 -0.174688 0.018162696 -0.11296371 0.26428425 -0.0053960257 -0.050426032 -0.022886489 -0.009382114 0.12364673 -0.0075733867 0.1205196 -0.06193297 0.095617235 -0.15563503 0.2787672 0.1727796 0.14903149 0.1754093 0.33426905 -0.25850153 0.094453566 -0.0061102966 0.06073208 -0.21054064 -0.17579356 0.0107422015 0.29065377 0.07871242 -0.14695103 -0.008335604 0.05729296 0.05456111 0.11546051 0.032785606 -0.059634566 -0.090951905 -0.06704373 -0.05694891 -0.07000889 0.079584695 -0.19992824 0.16266285 0.1446517 -0.0033477922 -0.111924626 0.22698551 -0.025810806 -0.10738662 -0.3520329 -0.048565786 -0.119946815 0.008160061 -0.3108804 0.003417514 -0.21451671 -0.12906025 -0.018888434 -0.07330156 0.017509835 0.069800526 0.06069385 -0.12880716 0.13683529 -0.21133366 0.11806892 -0.040948942 0.021024413 -0.17580369 0.09522241 -0.07542545 -0.15112248 -0.10130323 -0.0582478 0.031054687 -0.16199435 0.15387134 -0.060807455 0.1895897 0.18816528 -0.105676495 -0.040569387 -0.18191846 -0.014103599 -0.049164686 -0.09162176 -0.028492214 0.062242355 0.08876328 -0.19141445 0.0046662902 -0.23559764 -0.051299043 -0.09702251 -0.06592657 -0.054589592 0.049624637 -0.056011554 -0.12668575 0.07152241 0.20611647 0.05718986 -0.016822318 -0.026828505 0.04301378 -0.007227617 -0.12662181 0.08041854 0.104011975 0.032442417 0.028645692 -0.08318954 0.07338708 0.11703083 -0.069557086 -0.28187382 -0.047472585 0.08658079
5 0.20695697 0.08613061 0.07979413 -0.0091978675 0.20732965 0.0038091883 0.2096535 0.039750293 0.047824077 -0.10304006 0.095255196 -0.18041396 0.0015342748 -0.080368765 0.22396362 0.01335801 -0.08868222 -0.030316666 -0.045808215 0.12809524 0.020208476 0.11806165 -0.07193584 0.07368512 -0.19878134 0.2463823 0.12557094 0.12865345 0.10305416 0.31256768 -0.22070418 0.063022904 0.019497396 0.039496105 -0.18796681 -0.17856291 -0.000691088 0.2684282 0.07183399 -0.11164994 -0.06444221 0.06476101 0.022651661 0.08741943 0.013411269 -0.06629739 -0.04464198 -0.06640597 -0.098010674 -0.050894186 0.10371164 -0.17815389 0.167933 0.12130849 -0.029384905 -0.090312354 0.27095932 -0.031249193 -0.13059331 -0.32605344 -0.049043156 -0.14340372 -0.008269614 -0.303356 0.00080569444 -0.20914999 -0.12374736 -0.0049123946 -0.10326855 0.014229924 0.075699724 0.07846278 -0.1252278 0.15580451 -0.17028458 0.093660034 -0.0328513 0.0106450645 -0.15817066 0.08391317 -0.02988326 -0.1637487 -0.08571151 -0.052418973 -0.006709155 -0.1552264 0.15798065 -0.06875072 0.19569494 0.1904798 -0.096051745 -0.007791669 -0.17319804 -0.01694139 -0.022332717 -0.08909732 -0.059979927 0.018820718 0.048749786 -0.2279771 -0.01565317 -0.2584304 -0.038222913 -0.10727635 -0.089254126 -0.057615478 0.06170636 -0.043505568 -0.12105814 0.07251302 0.19422588 0.045879345 -0.0020570587 -0.008234645 0.04918049 -0.007946545 -0.12841886 0.093128644 0.10382741 0.054722056 0.053941652 -0.084092595 0.08371402 0.14097369 -0.055224612 -0.26671943 -0.056927998 0.09048564
26 0.13988581 -0.09750921 0.088666156 -0.19859743 0.034953345 0.0076735816 -0.0998926 -0.13906099 0.14633863 0.09312744 0.20777224 -0.12107434 0.03138617 0.06497146 0.0063570044 0.0531193 -0.009832954 -0.040192556 -0.12642695 -0.13758661 0.13179034 0.16248819 0.0033144688 0.04720401 -0.1777387 0.065580435 -0.14223698 -0.1891328 0.030226115 0.023477985 -0.23277608 0.02453638 0.019955117 0.05825827 -0.045922987 0.072578095 0.16202517 0.04145878 0.119085155 -0.05511449 -0.061412994 -0.09595392 0.012964663 -0.15469232 -0.15648429 -0.1298678 0.010296422 -0.24769054 -0.03697041 0.045105826 0.15137772 -0.021725621 0.07850509 0.007947752 -0.06325801 0.013294708 0.2191013 0.07178554 -0.21243438 0.01905799 0.04703817 -0.075869024 -0.049355075 -0.09459729 0.20218274 -0.15285245 0.047662854 0.031132689 -0.094314285 -0.13439271 0.17104301 0.13924007 -0.20598134 0.07966385 -0.051079787 -0.20159817 -0.1280592 -0.01889519 -0.10378904 0.23620915 0.12685329 -0.23586242 -0.004157473 0.20732976 0.03481537 0.120809086 0.07204724 -0.20429958 0.009098479 0.20342362 -0.15238132 0.08789784 -0.08527405 -0.0068023293 0.19827211 -0.028940532 -0.23185368 -0.280988 -0.12419403 -0.2503989 0.0013380188 -0.120967686 -0.058332313 -0.0049331607 -0.04749319 -0.2030047 0.04945718 0.016611129 0.06302344 -0.012007073 0.030441592 0.02573546 0.15411793 0.16513631 -0.1413165 0.026233725 -0.28810838 0.2660856 0.1195557 0.16861656 0.06750072 -0.15491283 -0.030641975 0.14415874 0.08983405 -0.03193293 -0.15745743 0.152392
17 0.23029324 0.09648367 0.045298092 -0.006150253 0.24475664 0.041118134 0.20052524 0.035605505 0.11815563 -0.12500656 0.04342786 -0.1521263 0.07460689 -0.09143673 0.23074804 0.09031514 -0.06727083 -0.09944801 -0.042649038 0.12333222 0.0031754842 0.11981702 -0.09128948 0.035012737 -0.19612011 0.27322024 0.16704765 0.064517274 0.12578298 0.3335847 -0.17959006 0.031756632 0.012561128 0.07858018 -0.26289594 -0.17774445 -0.022280756 0.2905052 0.10258114 -0.1617439 -0.06988173 0.030602183 0.02846949 0.09477138 0.015880086 -0.10390424 -0.052727897 -0.080681674 -0.1457201 -0.08596527 0.104269564 -0.21149443 0.17951703 0.15414469 -0.06442029 -0.14112565 0.3271329 -0.0009491184 -0.15320942 -0.39961565 -0.09634805 -0.13560422 -0.03935799 -0.33694166 0.021497946 -0.25502282 -0.14913538 0.00198518 -0.12783815 0.016212134 0.09055491 0.11142861 -0.15341744 0.20392264 -0.198035 0.10597023 -0.065352924 0.015876837 -0.18233542 0.09227061 -0.06678136 -0.20342457 -0.086822756 -0.047087315 -0.008225501 -0.171841 0.13010532 -0.09023342 0.2118398 0.20278193 -0.13089925 -0.016639868 -0.20604795 -0.02227485 -0.06622814 -0.12595703 0.010742083 0.07522204 0.06813599 -0.25855252 0.036124438 -0.29994336 -0.08903305 -0.14491978 -0.1129947 -0.08558059 0.049623035 -0.021280676 -0.09645065 0.13354827 0.19923902 0.091039725 -0.011864872 -0.00494197 0.02798514 0.0064558457 -0.18598258 0.06668667 0.12766103 0.03370817 0.06785956 -0.12059905 0.10491223 0.1544306 -0.06523526 -0.27184147 -0.04249536 0.09596952
23 0.123631135 -0.0003182974 0.08571899 0.014422211 -0.009421035 -0.06373827 0.13387406 0.09167066 0.007591029 0.03178559 0.16070057 -0.10196753 -0.006571463 -0.0035647468 0.14159694 -0.047748182 -0.036713716 0.09623541 -0.1493172 0.03161257 0.13354334 0.09525252 -0.012169146 0.07086704 -0.21086036 0.0149442665 -0.060341652 0.200623 0.036273446 0.07862325 -0.22374962 0.030070601 0.12196987 -0.11273069 -0.15730254 -0.08971099 0.13982578 0.061995003 0.13685948 -0.042754527 -0.068436906 0.16929387 -0.104168884 -0.10634149 -0.04572443 0.0132744685 0.04117275 -0.123309955 0.028981348 0.07034699 0.1264786 -0.003366916 0.15999173 0.07507771 0.09472467 0.07758344 0.16643146 -0.0033549361 -0.16898137 0.04059049 0.037659235 -0.11032135 -0.031583074 -0.012921901 0.087424144 -0.074599385 -0.014447541 0.018501837 -0.085925065 -0.089709215 0.112931326 0.08713002 -0.093552984 0.036138553 0.0735104 -0.117126405 0.04817735 -0.06659175 -0.008117857 0.13132496 0.13991128 -0.13682055 -0.0051657725 0.07363004 0.03482926 0.1006546 0.17578064 -0.139844 0.13145384 0.14686458 -0.111533105 0.044188004 0.030591525 0.0677767 0.1200156 0.05387404 -0.20193471 -0.26991156 0.020912131 -0.12414327 -0.21426822 -0.0686259 0.1282707 -0.020718867 -0.06428269 -0.052024372 0.039562136 -0.031664994 0.0038660148 -0.041925643 0.10293233 0.018707374 0.0009393066 0.18633848 0.057141054 0.0016476705 0.02259739 0.10909649 0.07706946 0.13161752 -0.008289396 -0.121890545 0.09977815 0.06000031 0.019717574 -0.16792734 -0.032807883 -0.060097758
15 0.12206223 -0.02738092 0.12403108 -0.028611813 -0.034221046 -0.09024815 0.111156814 0.08257189 0.0017130155 0.05258687 0.20135114 -0.10001172 -0.027317274 -0.00017539755 0.12040218 -0.071393035 -0.018364986 0.12328082 -0.14768712 -0.002213261 0.16047245 0.103535876 0.012173563 0.0862744 -0.20572159 0.000996412 -0.09049504 0.17895935 0.05729202 0.04249473 -0.2448767 0.050111294 0.11000223 -0.11529837 -0.13945124 -0.06744011 0.17233284 0.045229293 0.14690778 -0.04251639 -0.0398805 0.1599503 -0.10271192 -0.13112427 -0.05156146 0.021748133 0.045134734 -0.14637214 0.046986584 0.07899731 0.11355456 0.01236187 0.14533052 0.06923915 0.10328175 0.09081255 0.12998891 0.006250317 -0.16272318 0.073910795 0.0793131 -0.1001863 -0.031244881 0.025190469 0.10376114 -0.07770831 -0.0047163726 0.024096332 -0.06577595 -0.10751543 0.12322888 0.08492705 -0.095409535 0.019238818 0.06996252 -0.13474579 0.025321 -0.06242785 0.001302189 0.1604671 0.1541985 -0.13565287 0.0061689825 0.10187144 0.05792753 0.13955496 0.16766939 -0.16171896 0.111159675 0.14976566 -0.124994114 0.053010203 0.036635835 0.06607827 0.14191625 0.058620676 -0.21271111 -0.2924546 0.0017896524 -0.10768853 -0.21789518 -0.024795484 0.1262556 -0.008418968 -0.057645034 -0.058570236 0.033923533 -0.03093697 0.02541511 -0.069605045 0.08318754 0.0033638745 0.011932915 0.20002075 0.03604266 -0.009530468 0.023866005 0.1445275 0.07866513 0.14275318 -0.018740444 -0.12377463 0.07524019 0.048019033 0.015713636 -0.14686121 -0.04770173 -0.058611885
10 0.12796226 -0.029937327 0.09098321 -0.038104653 0.018174103 -0.1176468 0.07735429 0.06212579 0.05456564 0.016826576 0.22008897 -0.084683605 -0.009077991 -0.07904889 0.13051607 -0.024508763 -0.005546764 0.076992765 -0.058309935 -0.023574384 0.0709974 0.124967106 0.004134466 0.05033015 -0.13841239 0.055518325 -0.025405293 0.114874244 0.10082129 0.09020089 -0.23300752 0.049626444 0.05589237 -0.053343683 -0.13180567 -0.03111031 0.16928406 0.09192225 0.18208066 -0.07201266 -0.0021067285 0.06720224 -0.022286523 -0.09448359 -0.017432792 -0.02080106 -0.004806448 -0.18023926 0.0038177953 0.069165245 0.11047623 -0.066901974 0.114943124 0.09928487 0.07921903 -0.007057387 0.10946959 -0.011728375 -0.1581637 -0.0073787323 0.055168875 -0.07199757 -0.00026550837 -0.049892604 0.06708914 -0.12821262 -0.012739906 0.04698344 -0.0651357 -0.06451585 0.12761071 0.07339915 -0.11879136 0.03920751 -0.024093073 -0.11345062 -0.045157555 -0.022199782 -0.047072142 0.17536825 0.080830246 -0.14605369 -0.004729235 0.104105815 0.099998474 0.09478038 0.1523469 -0.13739827 0.11562033 0.17647985 -0.1436291 0.029638484 -0.034214795 0.050288424 0.12964775 0.03812235 -0.12454677 -0.20624502 0.037363373 -0.12881911 -0.10802059 -0.05338205 0.051036064 -0.026573258 -0.059923448 -0.094950356 0.057848085 -0.011278754 -0.02527198 -0.052816983 0.08212516 0.05017198 0.018605866 0.15668398 0.010620644 -0.024277333 -0.039419413 0.111242995 0.060577612 0.107417226 -0.013400531 -0.07996135 0.015950045 0.054409478 0.046441484 -0.1515008 -0.012881713 0.002681892
22 0.10005126 0.062206637 0.13149239 -0.041157022 0.08498576 -0.1409363 0.12707148 0.13106261 -0.04423134 -0.0111718085 0.14936256 -0.11972631 -0.059129015 -0.08942003 0.16320063 -0.10239171 -0.017110052 0.09512488 -0.01794117 0.09120218 0.010710076 0.05765723 -0.035340175 0.108624764 -0.15289427 0.15091479 0.060500693 0.18595724 0.12444791 0.16729714 -0.24270809 0.11126368 -0.037726928 0.017482067 -0.103558965 -0.083125085 0.10310992 0.1940978 0.1216679 -0.053583473 0.009013749 0.14494017 0.010751907 0.057235222 0.011895875 0.0064924546 -0.034368027 -0.104678 -0.028341135 -0.05204399 0.10410007 -0.15483071 0.17982937 0.12741306 0.12207291 -0.051697023 0.09789764 -0.028502366 -0.10672771 -0.19712362 0.08031008 -0.12418385 0.046988036 -0.14755076 0.038458705 -0.14055286 -0.12631482 0.01776681 -0.044295695 -0.105172366 0.06669588 -0.020753525 -0.122708924 0.007375232 -0.108569056 0.0064433673 -0.02792078 -0.0533364 -0.10103859 0.11123006 -0.027611058 -0.13026659 -0.010975159 -0.02593171 0.079110295 -0.05980533 0.18656702 -0.065390736 0.17723401 0.17495799 -0.07744704 0.006113346 -0.06287545 0.065370716 0.041106474 1.6852362e-05 -0.13341837 -0.11597088 0.13153009 -0.1429182 -0.119506754 -0.11550282 0.022976214 -0.07880439 -0.06724614 -0.018493202 -0.009553042 -0.06577154 -0.08322097 -0.023730556 0.13296388 0.0074672555 0.0418569 0.02622987 0.06630755 -0.025563607 0.008546775 0.11556391 0.08374278 0.0380989 -0.0085477745 -0.06934781 0.015964935 0.08077347 -0.085543334 -0.26265216 0.023249684 0.01485923
18 0.123381644 0.05520142 0.112202115 -0.046071254 0.1171343 -0.100286156 0.12841539 0.09214406 -0.016231285 -0.01574343 0.14912619 -0.1264115 -0.048349734 -0.08453922 0.17401758 -0.070983894 -0.026015962 0.063096315 -0.021409126 0.08935237 0.014964053 0.084423006 -0.047276903 0.1011259 -0.16854723 0.1778851 0.055413462 0.1609928 0.12815538 0.20047402 -0.24546725 0.10423268 -0.027571224 0.03320052 -0.11860143 -0.10344512 0.090267695 0.19360037 0.12018295 -0.059138358 -0.0120340055 0.108551264 0.016153226 0.049628627 0.009628595 -0.02984241 -0.036456797 -0.11166282 -0.05041817 -0.047754277 0.112488315 -0.16626495 0.1661817 0.11846289 0.08474567 -0.053171616 0.13415071 -0.031134628 -0.11716552 -0.20426668 0.046878915 -0.12579876 0.036437724 -0.16570117 0.040534027 -0.15856926 -0.10045113 0.017569492 -0.058060955 -0.0787151 0.0756359 0.016725423 -0.13305296 0.042421013 -0.11939412 0.0073646004 -0.034423914 -0.03420605 -0.10907677 0.11443908 -0.032829806 -0.14362468 -0.03832292 -0.01774675 0.053591438 -0.071086116 0.17122126 -0.061294742 0.17361635 0.18397406 -0.07777459 -0.0031984644 -0.09442641 0.03464555 0.046543796 -0.023692403 -0.11909101 -0.10016322 0.10131938 -0.1504552 -0.07702262 -0.13961145 0.00036274828 -0.080915004 -0.0717007 -0.03177813 0.012469109 -0.064544246 -0.084558286 -0.0014983381 0.13839632 0.0135639105 0.037629265 0.023863684 0.043668747 -0.013304584 -0.04211115 0.110472254 0.08238112 0.044354685 0.0045639793 -0.068447195 0.019428706 0.10106677 -0.06713792 -0.2351023 -0.010285717 0.042182613
13 0.06528178 0.0036367015 0.13273492 -0.08523244 0.103921555 -0.1326145 0.046878662 0.08226834 -0.047661986 0.0026424124 0.15897669 -0.14250688 -0.07214219 -0.08259076 0.110146776 -0.15098895 -0.01146015 0.09755277 0.008107006 0.046105683 -0.011198215 0.06941827 -0.006268053 0.12527692 -0.11437611 0.20391604 0.04661433 0.06959378 0.14145051 0.13827391 -0.27365792 0.14511344 -0.1059661 0.110321894 -0.015996134 -0.023310956 0.119726464 0.1774794 0.09949287 -0.035390124 0.03668062 0.09334449 0.056021687 0.08264683 0.0012870573 -0.037207518 -0.08588582 -0.12839414 -0.011471185 -0.10794771 0.10736659 -0.18484616 0.16820809 0.15055439 0.084168755 -0.07204291 0.039401308 -0.031117994 -0.09726515 -0.21201552 0.12633377 -0.15199238 0.11380183 -0.14546238 0.046697583 -0.1372949 -0.1250197 0.038888782 -0.0162131 -0.15848616 0.07149855 -0.08175058 -0.17047584 -0.007593805 -0.16323483 -0.0011124805 -0.07793539 -0.06937706 -0.12174878 0.1343991 -0.07945808 -0.15059142 0.005600697 0.016792012 0.07726277 -0.09988741 0.20318778 -0.03465161 0.1749902 0.21406324 -0.036426805 0.023682913 -0.09978644 0.055946242 0.108491756 -0.021065177 -0.18590218 -0.11636868 0.12379364 -0.1647922 -0.05987587 -0.13255438 -0.028187234 -0.0739178 -0.046415973 -0.024938827 -0.029588701 -0.07244779 -0.07463492 -0.027479846 0.14441831 -0.015395185 0.11093025 -0.0060783196 0.01776653 -0.01242349 -0.035163365 0.15483214 0.10630796 0.025897639 -0.006127335 -0.056132067 -0.030875947 0.112588644 -0.097620934 -0.275495 -0.010206397 0.084559746
16 0.11109898 -0.019104086 0.108439066 -0.021936124 -0.008016885 -0.072199315 0.08863317 0.07057912 0.022749985 0.04445989 0.18925957 -0.098844945 -0.007477691 -0.005908794 0.092894524 -0.049498957 -0.024007708 0.105340295 -0.14277574 0.0044268225 0.1429054 0.100972906 0.0025942945 0.066407405 -0.20225781 0.014269795 -0.08537152 0.15128587 0.041991893 0.062048256 -0.22846197 0.04795627 0.09633967 -0.09108918 -0.12603673 -0.06946932 0.15638342 0.05307047 0.14632168 -0.042540252 -0.057802647 0.13253444 -0.09534418 -0.12892142 -0.059952237 0.005215087 0.04338711 -0.15163742 0.0180471 0.06890048 0.11555768 0.002102518 0.14037998 0.08802327 0.0878367 0.058410708 0.14914043 0.0067513874 -0.17481923 0.048927017 0.0675154 -0.10840253 -0.02042011 -0.010237376 0.102012634 -0.085886545 -0.011879928 0.039598625 -0.07443982 -0.0963897 0.11088709 0.08049375 -0.10687115 0.027822463 0.057930607 -0.14215581 0.00955469 -0.0601407 -0.02762394 0.15209165 0.13348506 -0.14053454 0.014745602 0.10203116 0.061310705 0.13237683 0.15176283 -0.15327361 0.095484786 0.16002943 -0.12792598 0.054295495 0.012535578 0.067617 0.13814607 0.04185776 -0.20287964 -0.28524226 0.007979099 -0.13622056 -0.20502019 -0.058761843 0.09729459 -0.020431122 -0.06706304 -0.07401517 0.03133348 -0.0239156 0.019589303 -0.07020669 0.08510457 0.013336326 0.030879583 0.19827056 0.039606076 -0.007822402 -0.0057683806 0.1453821 0.07773596 0.13830422 -0.007300593 -0.12952873 0.08215001 0.063603945 0.025171295 -0.15329716 -0.04153769 -0.03307821
21 0.12385099 -0.02544726 0.118240416 -0.028640714 -0.028662626 -0.096170105 0.11291841 0.084013045 0.018688468 0.046952244 0.20724362 -0.10248482 -0.0156895 -0.00916468 0.1167326 -0.058651153 -0.021541858 0.12116736 -0.15133029 0.00096475077 0.14968245 0.10540538 0.0023054413 0.07181212 -0.20050691 -0.007934872 -0.08649816 0.16834036 0.051271155 0.05639888 -0.24278793 0.040435325 0.10190611 -0.108914755 -0.1336659 -0.05045875 0.17239174 0.048570655 0.15269996 -0.03783737 -0.044711124 0.14475028 -0.08556899 -0.127756 -0.0526377 0.016573211 0.03782455 -0.15546454 0.040445272 0.07523919 0.11698509 0.0032116927 0.14288782 0.0702204 0.105129726 0.077528566 0.14070004 -0.00456793 -0.1667621 0.06099074 0.07184716 -0.09943525 -0.037901204 0.0031791045 0.092657104 -0.083880946 -0.010048177 0.027703267 -0.07721703 -0.0960077 0.1264895 0.080120325 -0.11149317 0.022496149 0.06408525 -0.14308295 0.023494115 -0.06261435 -0.0013219768 0.16370827 0.14673892 -0.13335986 0.021368813 0.10640144 0.059828546 0.13155532 0.16222444 -0.15301634 0.11837151 0.14732029 -0.12134773 0.047876477 0.020784164 0.07282674 0.14381422 0.06072785 -0.21713935 -0.29007074 -0.00065654924 -0.121256076 -0.2092306 -0.031651538 0.11723904 -0.009881261 -0.05571537 -0.060544856 0.04386586 -0.040101193 0.011454135 -0.06873202 0.08780229 0.021288553 0.02061834 0.20354143 0.04664011 -0.01234784 0.010180143 0.13897212 0.07390868 0.13623637 -0.008576158 -0.11697735 0.06967885 0.06071586 0.027016956 -0.15338032 -0.03891735 -0.044163603
27 0.13874115 -0.010670567 0.06871128 -0.00021917318 -0.0058928095 -0.033938736 0.1332371 0.07689067 0.040867213 0.045744143 0.16804768 -0.110335216 -0.0056957686 0.018211449 0.13092439 -0.007824879 -0.036996104 0.08195137 -0.18838878 0.017860958 0.16181737 0.1156255 -0.016908914 0.06077547 -0.2220353 -0.020200454 -0.08888268 0.18287973 0.012700612 0.08378099 -0.22366793 -0.0005920694 0.16150637 -0.15724692 -0.17743689 -0.09836456 0.13873352 0.021172622 0.13591233 -0.05508902 -0.07837183 0.149545 -0.12706378 -0.14608699 -0.07660575 0.0006972628 0.06031977 -0.1389318 0.024861313 0.09697709 0.14314078 0.052507516 0.1582871 0.035090573 0.08986751 0.09770134 0.23886767 0.016514467 -0.1694633 0.083455585 0.0012314806 -0.09654307 -0.06543751 -0.005290971 0.09822513 -0.0909456 0.030441223 0.021636382 -0.111285776 -0.035379577 0.1402771 0.15508328 -0.096875325 0.07280685 0.08710159 -0.15950441 0.048928477 -0.042061966 -0.0074484455 0.15251634 0.19503897 -0.15224127 -0.014497877 0.1001229 0.037355725 0.13950618 0.17425215 -0.15427224 0.10390024 0.15712373 -0.12703635 0.043008026 0.009873725 0.042049326 0.12769918 0.03932104 -0.2153063 -0.29943264 -0.039048154 -0.13482024 -0.19588657 -0.05767836 0.11545924 0.0076065706 -0.032764297 -0.07248807 0.06343193 -0.043659963 0.0085896915 -0.049507156 0.114501916 0.030251859 -0.034090094 0.21717183 0.04274658 0.008992536 -0.012246268 0.10805231 0.074751854 0.17205581 -0.0061962814 -0.13190399 0.12935002 0.06148297 0.06889547 -0.13086635 -0.057296496 -0.046611253
19 0.14248234 -0.02739662 0.08709314 -0.015138369 -0.024078399 -0.06964275 0.13601851 0.07925978 0.03547448 0.0343572 0.20974573 -0.103489295 -0.004909129 0.0010131844 0.14311764 -0.034051962 -0.021500917 0.10221407 -0.16871682 -0.015991379 0.16853696 0.124373734 -0.010121863 0.06781208 -0.21004525 -0.0036023322 -0.08776005 0.1845602 0.057854123 0.07153333 -0.24641669 0.021695107 0.14725392 -0.14375842 -0.17057231 -0.07614743 0.15409492 0.033343088 0.14772436 -0.053757016 -0.061331674 0.1469573 -0.111594744 -0.15070762 -0.05963608 0.007210879 0.044297904 -0.15138716 0.042923905 0.094048746 0.12078409 0.02059008 0.1374454 0.057583883 0.102519 0.08434105 0.17920323 -0.002781661 -0.17652692 0.074577525 0.04724888 -0.092631266 -0.07024508 0.004876541 0.10580134 -0.08814339 0.020079438 0.028569072 -0.09413126 -0.071157254 0.13345419 0.1231637 -0.10381748 0.04678751 0.088924214 -0.14726306 0.03497837 -0.035477087 -0.0019653633 0.15422234 0.17249452 -0.13805501 -0.0069362214 0.108086914 0.058798023 0.15520431 0.14818317 -0.17414422 0.100507446 0.14966297 -0.1392908 0.05674306 0.018495899 0.058974456 0.14471945 0.055184778 -0.19754757 -0.29451975 -0.028182374 -0.11199942 -0.19854169 -0.042137537 0.1264039 -0.009714544 -0.04308707 -0.078170076 0.05002968 -0.03218804 0.027305922 -0.064443946 0.09831393 0.025570832 -0.004810204 0.22515686 0.04989425 0.0088122245 -0.016692236 0.122726716 0.06547468 0.15417273 -0.005084683 -0.12104219 0.096971504 0.055548474 0.04921635 -0.13186067 -0.05005311 -0.06086671
12 0.1042809 0.03807435 0.12292203 -0.044430953 0.12662478 -0.127781 0.13645187 0.10071845 -0.051318265 -0.037019458 0.14751764 -0.14300996 -0.07206257 -0.103792556 0.17741974 -0.12163039 -0.030054737 0.076086245 0.019411504 0.086340345 -0.005564377 0.062424857 -0.042016868 0.12537812 -0.13546355 0.21600156 0.09043978 0.16183046 0.15423979 0.2063084 -0.2647575 0.13096304 -0.05500748 0.065288946 -0.07779845 -0.090551406 0.0770907 0.2147339 0.10377775 -0.0580709 0.0330691 0.12548244 0.029557396 0.105791055 0.028505685 -0.019087385 -0.0770671 -0.08930311 -0.029312043 -0.08693319 0.10019623 -0.20698328 0.16887955 0.14259967 0.08604436 -0.08356328 0.07319523 -0.04864274 -0.09737746 -0.24479267 0.081464685 -0.13862902 0.08047889 -0.17904995 0.00061694253 -0.16297697 -0.1423041 0.01913401 -0.027289111 -0.093616 0.05669471 -0.049174365 -0.13465962 0.015625805 -0.16809005 0.05248385 -0.050100043 -0.043476272 -0.12324455 0.09847142 -0.078465454 -0.13464591 -0.026635503 -0.03228811 0.07159213 -0.13107502 0.19412252 -0.04101602 0.19748011 0.18927318 -0.055773232 0.0018824722 -0.11495008 0.0474726 0.04724057 -0.041399397 -0.12107923 -0.059128694 0.12674618 -0.14415401 -0.06034443 -0.14373186 -0.011649777 -0.09229289 -0.057256643 -0.01040537 -0.005141692 -0.07076489 -0.08867273 -0.0060803453 0.1549466 -0.002677904 0.050316166 -0.03583476 0.044130217 -0.015408053 -0.018539082 0.113634765 0.0827496 0.018893545 -0.0037760874 -0.041441508 -0.004316363 0.109979965 -0.11060172 -0.27369377 0.005728562 0.050946396
